<?xml version="1.0"?>
<opencv_storage>
<cascade>
  <stageType>BOOST</stageType>
  <featureType>HAAR</featureType>
  <height>24</height>
  <width>24</width>
  <stageParams>
    <boostType>GAB</boostType>
    <minHitRate>9.9500000476837158e-01</minHitRate>
    <maxFalseAlarm>5.0000000000000000e-01</maxFalseAlarm>
    <weightTrimRate>3.9500000476837158e+00</weightTrimRate>
    <maxDepth>1</maxDepth>
    <maxWeakCount>100</maxWeakCount></stageParams>
  <featureParams>
    <maxCatCount>0</maxCatCount>
    <featSize>1</featSize>
    <mode>BASIC</mode></featureParams>
  <stageNum>4</stageNum>
  <stages>
    <!-- stage 0 -->
    <_>
      <maxWeakCount>2</maxWeakCount>
      <stageThreshold>-2.8626650571823120e-01</stageThreshold>
      <weakClassifiers>
        <_>
          <internalNodes>
            0 -1 4 1.6187161207199097e-02</internalNodes>
          <leafValues>
            -9.9599999189376831e-01 8.0000001192092896e-01</leafValues></_>
        <_>
          <internalNodes>
            0 -1 1 5.5492380633950233e-03</internalNodes>
          <leafValues>
            -9.9757969379425049e-01 7.0973348617553711e-01</leafValues></_></weakClassifiers></_>
    <!-- stage 1 -->
    <_>
      <maxWeakCount>2</maxWeakCount>
      <stageThreshold>-8.4782809019088745e-01</stageThreshold>
      <weakClassifiers>
        <_>
          <internalNodes>
            0 -1 6 3.6938805133104324e-02</internalNodes>
          <leafValues>
            -9.9193549156188965e-01 1.4285714924335480e-01</leafValues></_>
        <_>
          <internalNodes>
            0 -1 5 -2.4883502721786499e-01</internalNodes>
          <leafValues>
            4.0426504611968994e-01 -9.9068522453308105e-01</leafValues></_></weakClassifiers></_>
    <!-- stage 2 -->
    <_>
      <maxWeakCount>1</maxWeakCount>
      <stageThreshold>6.6666668653488159e-01</stageThreshold>
      <weakClassifiers>
        <_>
          <internalNodes>
            0 -1 0 -4.2809596657752991e-01</internalNodes>
          <leafValues>
            6.6666668653488159e-01 -1.</leafValues></_></weakClassifiers></_>
    <!-- stage 3 -->
    <_>
      <maxWeakCount>2</maxWeakCount>
      <stageThreshold>-6.8032521009445190e-01</stageThreshold>
      <weakClassifiers>
        <_>
          <internalNodes>
            0 -1 2 -1.3421703130006790e-02</internalNodes>
          <leafValues>
            5.0000000000000000e-01 -9.9598395824432373e-01</leafValues></_>
        <_>
          <internalNodes>
            0 -1 3 -5.7422965764999390e-03</internalNodes>
          <leafValues>
            3.1565874814987183e-01 -1.</leafValues></_></weakClassifiers></_></stages>
  <features>
    <_>
      <rects>
        <_>
          0 2 11 22 -1.</_>
        <_>
          0 13 11 11 2.</_></rects>
      <tilted>0</tilted></_>
    <_>
      <rects>
        <_>
          2 14 6 2 -1.</_>
        <_>
          2 14 3 1 2.</_>
        <_>
          5 15 3 1 2.</_></rects>
      <tilted>0</tilted></_>
    <_>
      <rects>
        <_>
          3 10 2 12 -1.</_>
        <_>
          4 10 1 12 2.</_></rects>
      <tilted>0</tilted></_>
    <_>
      <rects>
        <_>
          3 19 2 4 -1.</_>
        <_>
          4 19 1 4 2.</_></rects>
      <tilted>0</tilted></_>
    <_>
      <rects>
        <_>
          5 15 3 7 -1.</_>
        <_>
          6 15 1 7 3.</_></rects>
      <tilted>0</tilted></_>
    <_>
      <rects>
        <_>
          6 0 18 16 -1.</_>
        <_>
          12 0 6 16 3.</_></rects>
      <tilted>0</tilted></_>
    <_>
      <rects>
        <_>
          14 13 8 3 -1.</_>
        <_>
          18 13 4 3 2.</_></rects>
      <tilted>0</tilted></_></features></cascade>
</opencv_storage>
